digraph Tree {
node [shape=box, style="filled, rounded", color="black", fontname="helvetica"] ;
edge [fontname="helvetica"] ;
0 [label="Glucose <= 127.5\ngini = 0.454\nsamples = 768\nvalue = [500, 268]\nclass = 0", fillcolor="#f3c5a3"] ;
1 [label="BMI <= 26.95\ngini = 0.313\nsamples = 485\nvalue = [391, 94]\nclass = 0", fillcolor="#eb9f69"] ;
0 -> 1 [labeldistance=2.5, labelangle=45, headlabel="True"] ;
2 [label="BMI <= 9.1\ngini = 0.056\nsamples = 140\nvalue = [136, 4]\nclass = 0", fillcolor="#e6853f"] ;
1 -> 2 ;
3 [label="Glucose <= 114.5\ngini = 0.32\nsamples = 10\nvalue = [8, 2]\nclass = 0", fillcolor="#eca06a"] ;
2 -> 3 ;
4 [label="gini = 0.0\nsamples = 7\nvalue = [7, 0]\nclass = 0", fillcolor="#e58139"] ;
3 -> 4 ;
5 [label="Glucose <= 116.5\ngini = 0.444\nsamples = 3\nvalue = [1, 2]\nclass = 1", fillcolor="#9ccef2"] ;
3 -> 5 ;
6 [label="gini = 0.0\nsamples = 1\nvalue = [0, 1]\nclass = 1", fillcolor="#399de5"] ;
5 -> 6 ;
7 [label="BloodPressure <= 80.0\ngini = 0.5\nsamples = 2\nvalue = [1, 1]\nclass = 0", fillcolor="#ffffff"] ;
5 -> 7 ;
8 [label="gini = 0.0\nsamples = 1\nvalue = [1, 0]\nclass = 0", fillcolor="#e58139"] ;
7 -> 8 ;
9 [label="gini = 0.0\nsamples = 1\nvalue = [0, 1]\nclass = 1", fillcolor="#399de5"] ;
7 -> 9 ;
10 [label="BMI <= 26.45\ngini = 0.03\nsamples = 130\nvalue = [128, 2]\nclass = 0", fillcolor="#e5833c"] ;
2 -> 10 ;
11 [label="BMI <= 22.95\ngini = 0.016\nsamples = 122\nvalue = [121, 1]\nclass = 0", fillcolor="#e5823b"] ;
10 -> 11 ;
12 [label="BMI <= 22.8\ngini = 0.046\nsamples = 42\nvalue = [41, 1]\nclass = 0", fillcolor="#e6843e"] ;
11 -> 12 ;
13 [label="gini = 0.0\nsamples = 41\nvalue = [41, 0]\nclass = 0", fillcolor="#e58139"] ;
12 -> 13 ;
14 [label="gini = 0.0\nsamples = 1\nvalue = [0, 1]\nclass = 1", fillcolor="#399de5"] ;
12 -> 14 ;
15 [label="gini = 0.0\nsamples = 80\nvalue = [80, 0]\nclass = 0", fillcolor="#e58139"] ;
11 -> 15 ;
16 [label="BMI <= 26.55\ngini = 0.219\nsamples = 8\nvalue = [7, 1]\nclass = 0", fillcolor="#e99355"] ;
10 -> 16 ;
17 [label="BloodPressure <= 64.0\ngini = 0.444\nsamples = 3\nvalue = [2, 1]\nclass = 0", fillcolor="#f2c09c"] ;
16 -> 17 ;
18 [label="gini = 0.0\nsamples = 1\nvalue = [0, 1]\nclass = 1", fillcolor="#399de5"] ;
17 -> 18 ;
19 [label="gini = 0.0\nsamples = 2\nvalue = [2, 0]\nclass = 0", fillcolor="#e58139"] ;
17 -> 19 ;
20 [label="gini = 0.0\nsamples = 5\nvalue = [5, 0]\nclass = 0", fillcolor="#e58139"] ;
16 -> 20 ;
21 [label="Glucose <= 99.5\ngini = 0.386\nsamples = 345\nvalue = [255.0, 90.0]\nclass = 0", fillcolor="#eead7f"] ;
1 -> 21 ;
22 [label="BMI <= 50.85\ngini = 0.216\nsamples = 130\nvalue = [114, 16]\nclass = 0", fillcolor="#e99355"] ;
21 -> 22 ;
23 [label="Glucose <= 28.5\ngini = 0.206\nsamples = 129\nvalue = [114, 15]\nclass = 0", fillcolor="#e89253"] ;
22 -> 23 ;
24 [label="BMI <= 35.5\ngini = 0.5\nsamples = 4\nvalue = [2, 2]\nclass = 0", fillcolor="#ffffff"] ;
23 -> 24 ;
25 [label="gini = 0.0\nsamples = 2\nvalue = [2, 0]\nclass = 0", fillcolor="#e58139"] ;
24 -> 25 ;
26 [label="gini = 0.0\nsamples = 2\nvalue = [0, 2]\nclass = 1", fillcolor="#399de5"] ;
24 -> 26 ;
27 [label="Glucose <= 89.5\ngini = 0.186\nsamples = 125\nvalue = [112, 13]\nclass = 0", fillcolor="#e89050"] ;
23 -> 27 ;
28 [label="BMI <= 31.1\ngini = 0.106\nsamples = 71\nvalue = [67, 4]\nclass = 0", fillcolor="#e78945"] ;
27 -> 28 ;
29 [label="BMI <= 30.7\ngini = 0.204\nsamples = 26\nvalue = [23, 3]\nclass = 0", fillcolor="#e89153"] ;
28 -> 29 ;
30 [label="BloodPressure <= 71.0\ngini = 0.147\nsamples = 25\nvalue = [23, 2]\nclass = 0", fillcolor="#e78c4a"] ;
29 -> 30 ;
31 [label="gini = 0.0\nsamples = 14\nvalue = [14, 0]\nclass = 0", fillcolor="#e58139"] ;
30 -> 31 ;
32 [label="Glucose <= 83.5\ngini = 0.298\nsamples = 11\nvalue = [9, 2]\nclass = 0", fillcolor="#eb9d65"] ;
30 -> 32 ;
33 [label="gini = 0.0\nsamples = 5\nvalue = [5, 0]\nclass = 0", fillcolor="#e58139"] ;
32 -> 33 ;
34 [label="Glucose <= 86.5\ngini = 0.444\nsamples = 6\nvalue = [4, 2]\nclass = 0", fillcolor="#f2c09c"] ;
32 -> 34 ;
35 [label="BMI <= 29.9\ngini = 0.444\nsamples = 3\nvalue = [1, 2]\nclass = 1", fillcolor="#9ccef2"] ;
34 -> 35 ;
36 [label="gini = 0.0\nsamples = 2\nvalue = [0, 2]\nclass = 1", fillcolor="#399de5"] ;
35 -> 36 ;
37 [label="gini = 0.0\nsamples = 1\nvalue = [1, 0]\nclass = 0", fillcolor="#e58139"] ;
35 -> 37 ;
38 [label="gini = 0.0\nsamples = 3\nvalue = [3, 0]\nclass = 0", fillcolor="#e58139"] ;
34 -> 38 ;
39 [label="gini = 0.0\nsamples = 1\nvalue = [0, 1]\nclass = 1", fillcolor="#399de5"] ;
29 -> 39 ;
40 [label="BloodPressure <= 81.0\ngini = 0.043\nsamples = 45\nvalue = [44, 1]\nclass = 0", fillcolor="#e6843d"] ;
28 -> 40 ;
41 [label="gini = 0.0\nsamples = 36\nvalue = [36, 0]\nclass = 0", fillcolor="#e58139"] ;
40 -> 41 ;
42 [label="BMI <= 34.3\ngini = 0.198\nsamples = 9\nvalue = [8, 1]\nclass = 0", fillcolor="#e89152"] ;
40 -> 42 ;
43 [label="BMI <= 33.85\ngini = 0.444\nsamples = 3\nvalue = [2, 1]\nclass = 0", fillcolor="#f2c09c"] ;
42 -> 43 ;
44 [label="gini = 0.0\nsamples = 2\nvalue = [2, 0]\nclass = 0", fillcolor="#e58139"] ;
43 -> 44 ;
45 [label="gini = 0.0\nsamples = 1\nvalue = [0, 1]\nclass = 1", fillcolor="#399de5"] ;
43 -> 45 ;
46 [label="gini = 0.0\nsamples = 6\nvalue = [6, 0]\nclass = 0", fillcolor="#e58139"] ;
42 -> 46 ;
47 [label="BloodPressure <= 75.0\ngini = 0.278\nsamples = 54\nvalue = [45, 9]\nclass = 0", fillcolor="#ea9a61"] ;
27 -> 47 ;
48 [label="BMI <= 37.85\ngini = 0.184\nsamples = 39\nvalue = [35, 4]\nclass = 0", fillcolor="#e88f50"] ;
47 -> 48 ;
49 [label="BMI <= 27.8\ngini = 0.117\nsamples = 32\nvalue = [30, 2]\nclass = 0", fillcolor="#e78946"] ;
48 -> 49 ;
50 [label="BMI <= 27.45\ngini = 0.32\nsamples = 5\nvalue = [4, 1]\nclass = 0", fillcolor="#eca06a"] ;
49 -> 50 ;
51 [label="gini = 0.0\nsamples = 4\nvalue = [4, 0]\nclass = 0", fillcolor="#e58139"] ;
50 -> 51 ;
52 [label="gini = 0.0\nsamples = 1\nvalue = [0, 1]\nclass = 1", fillcolor="#399de5"] ;
50 -> 52 ;
53 [label="BMI <= 32.05\ngini = 0.071\nsamples = 27\nvalue = [26, 1]\nclass = 0", fillcolor="#e68641"] ;
49 -> 53 ;
54 [label="BMI <= 31.8\ngini = 0.153\nsamples = 12\nvalue = [11, 1]\nclass = 0", fillcolor="#e78c4b"] ;
53 -> 54 ;
55 [label="gini = 0.0\nsamples = 10\nvalue = [10, 0]\nclass = 0", fillcolor="#e58139"] ;
54 -> 55 ;
56 [label="Glucose <= 93.5\ngini = 0.5\nsamples = 2\nvalue = [1, 1]\nclass = 0", fillcolor="#ffffff"] ;
54 -> 56 ;
57 [label="gini = 0.0\nsamples = 1\nvalue = [1, 0]\nclass = 0", fillcolor="#e58139"] ;
56 -> 57 ;
58 [label="gini = 0.0\nsamples = 1\nvalue = [0, 1]\nclass = 1", fillcolor="#399de5"] ;
56 -> 58 ;
59 [label="gini = 0.0\nsamples = 15\nvalue = [15, 0]\nclass = 0", fillcolor="#e58139"] ;
53 -> 59 ;
60 [label="Glucose <= 93.5\ngini = 0.408\nsamples = 7\nvalue = [5, 2]\nclass = 0", fillcolor="#efb388"] ;
48 -> 60 ;
61 [label="BMI <= 39.05\ngini = 0.444\nsamples = 3\nvalue = [1, 2]\nclass = 1", fillcolor="#9ccef2"] ;
60 -> 61 ;
62 [label="gini = 0.0\nsamples = 2\nvalue = [0, 2]\nclass = 1", fillcolor="#399de5"] ;
61 -> 62 ;
63 [label="gini = 0.0\nsamples = 1\nvalue = [1, 0]\nclass = 0", fillcolor="#e58139"] ;
61 -> 63 ;
64 [label="gini = 0.0\nsamples = 4\nvalue = [4, 0]\nclass = 0", fillcolor="#e58139"] ;
60 -> 64 ;
65 [label="Glucose <= 94.5\ngini = 0.444\nsamples = 15\nvalue = [10, 5]\nclass = 0", fillcolor="#f2c09c"] ;
47 -> 65 ;
66 [label="BloodPressure <= 83.5\ngini = 0.219\nsamples = 8\nvalue = [7, 1]\nclass = 0", fillcolor="#e99355"] ;
65 -> 66 ;
67 [label="gini = 0.0\nsamples = 5\nvalue = [5, 0]\nclass = 0", fillcolor="#e58139"] ;
66 -> 67 ;
68 [label="BMI <= 36.3\ngini = 0.444\nsamples = 3\nvalue = [2, 1]\nclass = 0", fillcolor="#f2c09c"] ;
66 -> 68 ;
69 [label="gini = 0.0\nsamples = 1\nvalue = [0, 1]\nclass = 1", fillcolor="#399de5"] ;
68 -> 69 ;
70 [label="gini = 0.0\nsamples = 2\nvalue = [2, 0]\nclass = 0", fillcolor="#e58139"] ;
68 -> 70 ;
71 [label="BloodPressure <= 77.0\ngini = 0.49\nsamples = 7\nvalue = [3, 4]\nclass = 1", fillcolor="#cee6f8"] ;
65 -> 71 ;
72 [label="gini = 0.0\nsamples = 2\nvalue = [0, 2]\nclass = 1", fillcolor="#399de5"] ;
71 -> 72 ;
73 [label="Glucose <= 95.5\ngini = 0.48\nsamples = 5\nvalue = [3, 2]\nclass = 0", fillcolor="#f6d5bd"] ;
71 -> 73 ;
74 [label="BloodPressure <= 81.0\ngini = 0.444\nsamples = 3\nvalue = [1, 2]\nclass = 1", fillcolor="#9ccef2"] ;
73 -> 74 ;
75 [label="gini = 0.0\nsamples = 1\nvalue = [1, 0]\nclass = 0", fillcolor="#e58139"] ;
74 -> 75 ;
76 [label="gini = 0.0\nsamples = 2\nvalue = [0, 2]\nclass = 1", fillcolor="#399de5"] ;
74 -> 76 ;
77 [label="gini = 0.0\nsamples = 2\nvalue = [2, 0]\nclass = 0", fillcolor="#e58139"] ;
73 -> 77 ;
78 [label="gini = 0.0\nsamples = 1\nvalue = [0, 1]\nclass = 1", fillcolor="#399de5"] ;
22 -> 78 ;
79 [label="BMI <= 45.4\ngini = 0.451\nsamples = 215\nvalue = [141, 74]\nclass = 0", fillcolor="#f3c3a1"] ;
21 -> 79 ;
80 [label="BMI <= 34.05\ngini = 0.44\nsamples = 205\nvalue = [138, 67]\nclass = 0", fillcolor="#f2be99"] ;
79 -> 80 ;
81 [label="BMI <= 32.15\ngini = 0.483\nsamples = 113\nvalue = [67, 46]\nclass = 0", fillcolor="#f7d8c1"] ;
80 -> 81 ;
82 [label="BloodPressure <= 69.0\ngini = 0.452\nsamples = 81\nvalue = [53, 28]\nclass = 0", fillcolor="#f3c4a2"] ;
81 -> 82 ;
83 [label="BloodPressure <= 22.0\ngini = 0.32\nsamples = 35\nvalue = [28, 7]\nclass = 0", fillcolor="#eca06a"] ;
82 -> 83 ;
84 [label="gini = 0.0\nsamples = 2\nvalue = [0, 2]\nclass = 1", fillcolor="#399de5"] ;
83 -> 84 ;
85 [label="BMI <= 27.55\ngini = 0.257\nsamples = 33\nvalue = [28, 5]\nclass = 0", fillcolor="#ea985c"] ;
83 -> 85 ;
86 [label="BloodPressure <= 66.0\ngini = 0.444\nsamples = 3\nvalue = [1, 2]\nclass = 1", fillcolor="#9ccef2"] ;
85 -> 86 ;
87 [label="gini = 0.0\nsamples = 2\nvalue = [0, 2]\nclass = 1", fillcolor="#399de5"] ;
86 -> 87 ;
88 [label="gini = 0.0\nsamples = 1\nvalue = [1, 0]\nclass = 0", fillcolor="#e58139"] ;
86 -> 88 ;
89 [label="Glucose <= 116.0\ngini = 0.18\nsamples = 30\nvalue = [27, 3]\nclass = 0", fillcolor="#e88f4f"] ;
85 -> 89 ;
90 [label="gini = 0.0\nsamples = 19\nvalue = [19, 0]\nclass = 0", fillcolor="#e58139"] ;
89 -> 90 ;
91 [label="BMI <= 31.8\ngini = 0.397\nsamples = 11\nvalue = [8, 3]\nclass = 0", fillcolor="#efb083"] ;
89 -> 91 ;
92 [label="BloodPressure <= 64.0\ngini = 0.32\nsamples = 10\nvalue = [8, 2]\nclass = 0", fillcolor="#eca06a"] ;
91 -> 92 ;
93 [label="BloodPressure <= 59.0\ngini = 0.444\nsamples = 6\nvalue = [4, 2]\nclass = 0", fillcolor="#f2c09c"] ;
92 -> 93 ;
94 [label="gini = 0.0\nsamples = 3\nvalue = [3, 0]\nclass = 0", fillcolor="#e58139"] ;
93 -> 94 ;
95 [label="BloodPressure <= 61.0\ngini = 0.444\nsamples = 3\nvalue = [1, 2]\nclass = 1", fillcolor="#9ccef2"] ;
93 -> 95 ;
96 [label="BMI <= 29.95\ngini = 0.5\nsamples = 2\nvalue = [1, 1]\nclass = 0", fillcolor="#ffffff"] ;
95 -> 96 ;
97 [label="gini = 0.0\nsamples = 1\nvalue = [1, 0]\nclass = 0", fillcolor="#e58139"] ;
96 -> 97 ;
98 [label="gini = 0.0\nsamples = 1\nvalue = [0, 1]\nclass = 1", fillcolor="#399de5"] ;
96 -> 98 ;
99 [label="gini = 0.0\nsamples = 1\nvalue = [0, 1]\nclass = 1", fillcolor="#399de5"] ;
95 -> 99 ;
100 [label="gini = 0.0\nsamples = 4\nvalue = [4, 0]\nclass = 0", fillcolor="#e58139"] ;
92 -> 100 ;
101 [label="gini = 0.0\nsamples = 1\nvalue = [0, 1]\nclass = 1", fillcolor="#399de5"] ;
91 -> 101 ;
102 [label="BloodPressure <= 83.0\ngini = 0.496\nsamples = 46\nvalue = [25, 21]\nclass = 0", fillcolor="#fbebdf"] ;
82 -> 102 ;
103 [label="Glucose <= 103.5\ngini = 0.493\nsamples = 34\nvalue = [15, 19]\nclass = 1", fillcolor="#d5eafa"] ;
102 -> 103 ;
104 [label="BloodPressure <= 78.0\ngini = 0.375\nsamples = 4\nvalue = [3, 1]\nclass = 0", fillcolor="#eeab7b"] ;
103 -> 104 ;
105 [label="gini = 0.0\nsamples = 3\nvalue = [3, 0]\nclass = 0", fillcolor="#e58139"] ;
104 -> 105 ;
106 [label="gini = 0.0\nsamples = 1\nvalue = [0, 1]\nclass = 1", fillcolor="#399de5"] ;
104 -> 106 ;
107 [label="Glucose <= 125.5\ngini = 0.48\nsamples = 30\nvalue = [12, 18]\nclass = 1", fillcolor="#bddef6"] ;
103 -> 107 ;
108 [label="Glucose <= 123.5\ngini = 0.471\nsamples = 29\nvalue = [11, 18]\nclass = 1", fillcolor="#b2d9f5"] ;
107 -> 108 ;
109 [label="Glucose <= 119.5\ngini = 0.496\nsamples = 22\nvalue = [10, 12]\nclass = 1", fillcolor="#deeffb"] ;
108 -> 109 ;
110 [label="BMI <= 31.1\ngini = 0.465\nsamples = 19\nvalue = [7, 12]\nclass = 1", fillcolor="#acd6f4"] ;
109 -> 110 ;
111 [label="BMI <= 30.65\ngini = 0.492\nsamples = 16\nvalue = [7, 9]\nclass = 1", fillcolor="#d3e9f9"] ;
110 -> 111 ;
112 [label="BMI <= 28.85\ngini = 0.426\nsamples = 13\nvalue = [4, 9]\nclass = 1", fillcolor="#91c9f1"] ;
111 -> 112 ;
113 [label="BMI <= 28.3\ngini = 0.5\nsamples = 8\nvalue = [4, 4]\nclass = 0", fillcolor="#ffffff"] ;
112 -> 113 ;
114 [label="Glucose <= 114.0\ngini = 0.444\nsamples = 6\nvalue = [2, 4]\nclass = 1", fillcolor="#9ccef2"] ;
113 -> 114 ;
115 [label="Glucose <= 109.5\ngini = 0.32\nsamples = 5\nvalue = [1, 4]\nclass = 1", fillcolor="#6ab6ec"] ;
114 -> 115 ;
116 [label="gini = 0.0\nsamples = 2\nvalue = [0, 2]\nclass = 1", fillcolor="#399de5"] ;
115 -> 116 ;
117 [label="Glucose <= 110.5\ngini = 0.444\nsamples = 3\nvalue = [1, 2]\nclass = 1", fillcolor="#9ccef2"] ;
115 -> 117 ;
118 [label="gini = 0.0\nsamples = 1\nvalue = [1, 0]\nclass = 0", fillcolor="#e58139"] ;
117 -> 118 ;
119 [label="gini = 0.0\nsamples = 2\nvalue = [0, 2]\nclass = 1", fillcolor="#399de5"] ;
117 -> 119 ;
120 [label="gini = 0.0\nsamples = 1\nvalue = [1, 0]\nclass = 0", fillcolor="#e58139"] ;
114 -> 120 ;
121 [label="gini = 0.0\nsamples = 2\nvalue = [2, 0]\nclass = 0", fillcolor="#e58139"] ;
113 -> 121 ;
122 [label="gini = 0.0\nsamples = 5\nvalue = [0, 5]\nclass = 1", fillcolor="#399de5"] ;
112 -> 122 ;
123 [label="gini = 0.0\nsamples = 3\nvalue = [3, 0]\nclass = 0", fillcolor="#e58139"] ;
111 -> 123 ;
124 [label="gini = 0.0\nsamples = 3\nvalue = [0, 3]\nclass = 1", fillcolor="#399de5"] ;
110 -> 124 ;
125 [label="gini = 0.0\nsamples = 3\nvalue = [3, 0]\nclass = 0", fillcolor="#e58139"] ;
109 -> 125 ;
126 [label="BloodPressure <= 73.0\ngini = 0.245\nsamples = 7\nvalue = [1, 6]\nclass = 1", fillcolor="#5aade9"] ;
108 -> 126 ;
127 [label="gini = 0.0\nsamples = 4\nvalue = [0, 4]\nclass = 1", fillcolor="#399de5"] ;
126 -> 127 ;
128 [label="BloodPressure <= 75.0\ngini = 0.444\nsamples = 3\nvalue = [1, 2]\nclass = 1", fillcolor="#9ccef2"] ;
126 -> 128 ;
129 [label="gini = 0.0\nsamples = 1\nvalue = [1, 0]\nclass = 0", fillcolor="#e58139"] ;
128 -> 129 ;
130 [label="gini = 0.0\nsamples = 2\nvalue = [0, 2]\nclass = 1", fillcolor="#399de5"] ;
128 -> 130 ;
131 [label="gini = 0.0\nsamples = 1\nvalue = [1, 0]\nclass = 0", fillcolor="#e58139"] ;
107 -> 131 ;
132 [label="BMI <= 28.55\ngini = 0.278\nsamples = 12\nvalue = [10, 2]\nclass = 0", fillcolor="#ea9a61"] ;
102 -> 132 ;
133 [label="BMI <= 27.85\ngini = 0.444\nsamples = 6\nvalue = [4, 2]\nclass = 0", fillcolor="#f2c09c"] ;
132 -> 133 ;
134 [label="gini = 0.0\nsamples = 3\nvalue = [3, 0]\nclass = 0", fillcolor="#e58139"] ;
133 -> 134 ;
135 [label="BloodPressure <= 88.0\ngini = 0.444\nsamples = 3\nvalue = [1, 2]\nclass = 1", fillcolor="#9ccef2"] ;
133 -> 135 ;
136 [label="gini = 0.0\nsamples = 2\nvalue = [0, 2]\nclass = 1", fillcolor="#399de5"] ;
135 -> 136 ;
137 [label="gini = 0.0\nsamples = 1\nvalue = [1, 0]\nclass = 0", fillcolor="#e58139"] ;
135 -> 137 ;
138 [label="gini = 0.0\nsamples = 6\nvalue = [6, 0]\nclass = 0", fillcolor="#e58139"] ;
132 -> 138 ;
139 [label="BMI <= 32.35\ngini = 0.492\nsamples = 32\nvalue = [14, 18]\nclass = 1", fillcolor="#d3e9f9"] ;
81 -> 139 ;
140 [label="gini = 0.0\nsamples = 2\nvalue = [0, 2]\nclass = 1", fillcolor="#399de5"] ;
139 -> 140 ;
141 [label="BloodPressure <= 91.0\ngini = 0.498\nsamples = 30\nvalue = [14, 16]\nclass = 1", fillcolor="#e6f3fc"] ;
139 -> 141 ;
142 [label="Glucose <= 116.0\ngini = 0.495\nsamples = 29\nvalue = [13, 16]\nclass = 1", fillcolor="#daedfa"] ;
141 -> 142 ;
143 [label="Glucose <= 111.5\ngini = 0.444\nsamples = 15\nvalue = [5, 10]\nclass = 1", fillcolor="#9ccef2"] ;
142 -> 143 ;
144 [label="Glucose <= 109.5\ngini = 0.496\nsamples = 11\nvalue = [5, 6]\nclass = 1", fillcolor="#deeffb"] ;
143 -> 144 ;
145 [label="BloodPressure <= 58.0\ngini = 0.48\nsamples = 10\nvalue = [4, 6]\nclass = 1", fillcolor="#bddef6"] ;
144 -> 145 ;
146 [label="gini = 0.0\nsamples = 1\nvalue = [1, 0]\nclass = 0", fillcolor="#e58139"] ;
145 -> 146 ;
147 [label="BloodPressure <= 70.0\ngini = 0.444\nsamples = 9\nvalue = [3, 6]\nclass = 1", fillcolor="#9ccef2"] ;
145 -> 147 ;
148 [label="gini = 0.0\nsamples = 3\nvalue = [0, 3]\nclass = 1", fillcolor="#399de5"] ;
147 -> 148 ;
149 [label="BloodPressure <= 75.0\ngini = 0.5\nsamples = 6\nvalue = [3, 3]\nclass = 0", fillcolor="#ffffff"] ;
147 -> 149 ;
150 [label="gini = 0.0\nsamples = 1\nvalue = [1, 0]\nclass = 0", fillcolor="#e58139"] ;
149 -> 150 ;
151 [label="Glucose <= 101.5\ngini = 0.48\nsamples = 5\nvalue = [2, 3]\nclass = 1", fillcolor="#bddef6"] ;
149 -> 151 ;
152 [label="gini = 0.0\nsamples = 1\nvalue = [1, 0]\nclass = 0", fillcolor="#e58139"] ;
151 -> 152 ;
153 [label="BMI <= 32.7\ngini = 0.375\nsamples = 4\nvalue = [1, 3]\nclass = 1", fillcolor="#7bbeee"] ;
151 -> 153 ;
154 [label="BloodPressure <= 84.0\ngini = 0.5\nsamples = 2\nvalue = [1, 1]\nclass = 0", fillcolor="#ffffff"] ;
153 -> 154 ;
155 [label="gini = 0.0\nsamples = 1\nvalue = [1, 0]\nclass = 0", fillcolor="#e58139"] ;
154 -> 155 ;
156 [label="gini = 0.0\nsamples = 1\nvalue = [0, 1]\nclass = 1", fillcolor="#399de5"] ;
154 -> 156 ;
157 [label="gini = 0.0\nsamples = 2\nvalue = [0, 2]\nclass = 1", fillcolor="#399de5"] ;
153 -> 157 ;
158 [label="gini = 0.0\nsamples = 1\nvalue = [1, 0]\nclass = 0", fillcolor="#e58139"] ;
144 -> 158 ;
159 [label="gini = 0.0\nsamples = 4\nvalue = [0, 4]\nclass = 1", fillcolor="#399de5"] ;
143 -> 159 ;
160 [label="Glucose <= 118.5\ngini = 0.49\nsamples = 14\nvalue = [8, 6]\nclass = 0", fillcolor="#f8e0ce"] ;
142 -> 160 ;
161 [label="gini = 0.0\nsamples = 4\nvalue = [4, 0]\nclass = 0", fillcolor="#e58139"] ;
160 -> 161 ;
162 [label="BloodPressure <= 58.0\ngini = 0.48\nsamples = 10\nvalue = [4, 6]\nclass = 1", fillcolor="#bddef6"] ;
160 -> 162 ;
163 [label="gini = 0.0\nsamples = 3\nvalue = [0, 3]\nclass = 1", fillcolor="#399de5"] ;
162 -> 163 ;
164 [label="Glucose <= 123.5\ngini = 0.49\nsamples = 7\nvalue = [4, 3]\nclass = 0", fillcolor="#f8e0ce"] ;
162 -> 164 ;
165 [label="gini = 0.0\nsamples = 2\nvalue = [2, 0]\nclass = 0", fillcolor="#e58139"] ;
164 -> 165 ;
166 [label="BloodPressure <= 64.0\ngini = 0.48\nsamples = 5\nvalue = [2, 3]\nclass = 1", fillcolor="#bddef6"] ;
164 -> 166 ;
167 [label="gini = 0.0\nsamples = 1\nvalue = [1, 0]\nclass = 0", fillcolor="#e58139"] ;
166 -> 167 ;
168 [label="BloodPressure <= 78.0\ngini = 0.375\nsamples = 4\nvalue = [1, 3]\nclass = 1", fillcolor="#7bbeee"] ;
166 -> 168 ;
169 [label="gini = 0.0\nsamples = 3\nvalue = [0, 3]\nclass = 1", fillcolor="#399de5"] ;
168 -> 169 ;
170 [label="gini = 0.0\nsamples = 1\nvalue = [1, 0]\nclass = 0", fillcolor="#e58139"] ;
168 -> 170 ;
171 [label="gini = 0.0\nsamples = 1\nvalue = [1, 0]\nclass = 0", fillcolor="#e58139"] ;
141 -> 171 ;
172 [label="BloodPressure <= 67.0\ngini = 0.352\nsamples = 92\nvalue = [71, 21]\nclass = 0", fillcolor="#eda674"] ;
80 -> 172 ;
173 [label="BloodPressure <= 61.0\ngini = 0.435\nsamples = 25\nvalue = [17, 8]\nclass = 0", fillcolor="#f1bc96"] ;
172 -> 173 ;
174 [label="BMI <= 35.9\ngini = 0.165\nsamples = 11\nvalue = [10, 1]\nclass = 0", fillcolor="#e88e4d"] ;
173 -> 174 ;
175 [label="gini = 0.0\nsamples = 6\nvalue = [6, 0]\nclass = 0", fillcolor="#e58139"] ;
174 -> 175 ;
176 [label="BMI <= 36.1\ngini = 0.32\nsamples = 5\nvalue = [4, 1]\nclass = 0", fillcolor="#eca06a"] ;
174 -> 176 ;
177 [label="gini = 0.0\nsamples = 1\nvalue = [0, 1]\nclass = 1", fillcolor="#399de5"] ;
176 -> 177 ;
178 [label="gini = 0.0\nsamples = 4\nvalue = [4, 0]\nclass = 0", fillcolor="#e58139"] ;
176 -> 178 ;
179 [label="BMI <= 37.95\ngini = 0.5\nsamples = 14\nvalue = [7, 7]\nclass = 0", fillcolor="#ffffff"] ;
173 -> 179 ;
180 [label="BMI <= 34.25\ngini = 0.375\nsamples = 8\nvalue = [2, 6]\nclass = 1", fillcolor="#7bbeee"] ;
179 -> 180 ;
181 [label="gini = 0.0\nsamples = 1\nvalue = [1, 0]\nclass = 0", fillcolor="#e58139"] ;
180 -> 181 ;
182 [label="Glucose <= 115.5\ngini = 0.245\nsamples = 7\nvalue = [1, 6]\nclass = 1", fillcolor="#5aade9"] ;
180 -> 182 ;
183 [label="gini = 0.0\nsamples = 4\nvalue = [0, 4]\nclass = 1", fillcolor="#399de5"] ;
182 -> 183 ;
184 [label="Glucose <= 120.0\ngini = 0.444\nsamples = 3\nvalue = [1, 2]\nclass = 1", fillcolor="#9ccef2"] ;
182 -> 184 ;
185 [label="gini = 0.0\nsamples = 1\nvalue = [1, 0]\nclass = 0", fillcolor="#e58139"] ;
184 -> 185 ;
186 [label="gini = 0.0\nsamples = 2\nvalue = [0, 2]\nclass = 1", fillcolor="#399de5"] ;
184 -> 186 ;
187 [label="Glucose <= 104.0\ngini = 0.278\nsamples = 6\nvalue = [5, 1]\nclass = 0", fillcolor="#ea9a61"] ;
179 -> 187 ;
188 [label="BloodPressure <= 65.0\ngini = 0.5\nsamples = 2\nvalue = [1, 1]\nclass = 0", fillcolor="#ffffff"] ;
187 -> 188 ;
189 [label="gini = 0.0\nsamples = 1\nvalue = [1, 0]\nclass = 0", fillcolor="#e58139"] ;
188 -> 189 ;
190 [label="gini = 0.0\nsamples = 1\nvalue = [0, 1]\nclass = 1", fillcolor="#399de5"] ;
188 -> 190 ;
191 [label="gini = 0.0\nsamples = 4\nvalue = [4, 0]\nclass = 0", fillcolor="#e58139"] ;
187 -> 191 ;
192 [label="BMI <= 39.35\ngini = 0.313\nsamples = 67\nvalue = [54, 13]\nclass = 0", fillcolor="#eb9f69"] ;
172 -> 192 ;
193 [label="BMI <= 37.15\ngini = 0.249\nsamples = 48\nvalue = [41, 7]\nclass = 0", fillcolor="#e9975b"] ;
192 -> 193 ;
194 [label="BMI <= 37.0\ngini = 0.342\nsamples = 32\nvalue = [25, 7]\nclass = 0", fillcolor="#eca470"] ;
193 -> 194 ;
195 [label="Glucose <= 100.5\ngini = 0.312\nsamples = 31\nvalue = [25, 6]\nclass = 0", fillcolor="#eb9f69"] ;
194 -> 195 ;
196 [label="gini = 0.0\nsamples = 1\nvalue = [0, 1]\nclass = 1", fillcolor="#399de5"] ;
195 -> 196 ;
197 [label="Glucose <= 108.5\ngini = 0.278\nsamples = 30\nvalue = [25, 5]\nclass = 0", fillcolor="#ea9a61"] ;
195 -> 197 ;
198 [label="gini = 0.0\nsamples = 9\nvalue = [9, 0]\nclass = 0", fillcolor="#e58139"] ;
197 -> 198 ;
199 [label="Glucose <= 119.5\ngini = 0.363\nsamples = 21\nvalue = [16, 5]\nclass = 0", fillcolor="#eda877"] ;
197 -> 199 ;
200 [label="BloodPressure <= 79.0\ngini = 0.463\nsamples = 11\nvalue = [7, 4]\nclass = 0", fillcolor="#f4c9aa"] ;
199 -> 200 ;
201 [label="Glucose <= 113.5\ngini = 0.278\nsamples = 6\nvalue = [5, 1]\nclass = 0", fillcolor="#ea9a61"] ;
200 -> 201 ;
202 [label="gini = 0.0\nsamples = 4\nvalue = [4, 0]\nclass = 0", fillcolor="#e58139"] ;
201 -> 202 ;
203 [label="BloodPressure <= 74.0\ngini = 0.5\nsamples = 2\nvalue = [1, 1]\nclass = 0", fillcolor="#ffffff"] ;
201 -> 203 ;
204 [label="gini = 0.0\nsamples = 1\nvalue = [0, 1]\nclass = 1", fillcolor="#399de5"] ;
203 -> 204 ;
205 [label="gini = 0.0\nsamples = 1\nvalue = [1, 0]\nclass = 0", fillcolor="#e58139"] ;
203 -> 205 ;
206 [label="BMI <= 34.15\ngini = 0.48\nsamples = 5\nvalue = [2, 3]\nclass = 1", fillcolor="#bddef6"] ;
200 -> 206 ;
207 [label="gini = 0.0\nsamples = 1\nvalue = [1, 0]\nclass = 0", fillcolor="#e58139"] ;
206 -> 207 ;
208 [label="BloodPressure <= 81.0\ngini = 0.375\nsamples = 4\nvalue = [1, 3]\nclass = 1", fillcolor="#7bbeee"] ;
206 -> 208 ;
209 [label="Glucose <= 110.5\ngini = 0.5\nsamples = 2\nvalue = [1, 1]\nclass = 0", fillcolor="#ffffff"] ;
208 -> 209 ;
210 [label="gini = 0.0\nsamples = 1\nvalue = [0, 1]\nclass = 1", fillcolor="#399de5"] ;
209 -> 210 ;
211 [label="gini = 0.0\nsamples = 1\nvalue = [1, 0]\nclass = 0", fillcolor="#e58139"] ;
209 -> 211 ;
212 [label="gini = 0.0\nsamples = 2\nvalue = [0, 2]\nclass = 1", fillcolor="#399de5"] ;
208 -> 212 ;
213 [label="BMI <= 36.1\ngini = 0.18\nsamples = 10\nvalue = [9, 1]\nclass = 0", fillcolor="#e88f4f"] ;
199 -> 213 ;
214 [label="gini = 0.0\nsamples = 7\nvalue = [7, 0]\nclass = 0", fillcolor="#e58139"] ;
213 -> 214 ;
215 [label="Glucose <= 122.5\ngini = 0.444\nsamples = 3\nvalue = [2, 1]\nclass = 0", fillcolor="#f2c09c"] ;
213 -> 215 ;
216 [label="gini = 0.0\nsamples = 1\nvalue = [1, 0]\nclass = 0", fillcolor="#e58139"] ;
215 -> 216 ;
217 [label="Glucose <= 125.0\ngini = 0.5\nsamples = 2\nvalue = [1, 1]\nclass = 0", fillcolor="#ffffff"] ;
215 -> 217 ;
218 [label="gini = 0.0\nsamples = 1\nvalue = [0, 1]\nclass = 1", fillcolor="#399de5"] ;
217 -> 218 ;
219 [label="gini = 0.0\nsamples = 1\nvalue = [1, 0]\nclass = 0", fillcolor="#e58139"] ;
217 -> 219 ;
220 [label="gini = 0.0\nsamples = 1\nvalue = [0, 1]\nclass = 1", fillcolor="#399de5"] ;
194 -> 220 ;
221 [label="gini = 0.0\nsamples = 16\nvalue = [16, 0]\nclass = 0", fillcolor="#e58139"] ;
193 -> 221 ;
222 [label="Glucose <= 105.5\ngini = 0.432\nsamples = 19\nvalue = [13, 6]\nclass = 0", fillcolor="#f1bb94"] ;
192 -> 222 ;
223 [label="BloodPressure <= 72.0\ngini = 0.375\nsamples = 4\nvalue = [1, 3]\nclass = 1", fillcolor="#7bbeee"] ;
222 -> 223 ;
224 [label="gini = 0.0\nsamples = 1\nvalue = [1, 0]\nclass = 0", fillcolor="#e58139"] ;
223 -> 224 ;
225 [label="gini = 0.0\nsamples = 3\nvalue = [0, 3]\nclass = 1", fillcolor="#399de5"] ;
223 -> 225 ;
226 [label="Glucose <= 117.5\ngini = 0.32\nsamples = 15\nvalue = [12, 3]\nclass = 0", fillcolor="#eca06a"] ;
222 -> 226 ;
227 [label="gini = 0.0\nsamples = 8\nvalue = [8, 0]\nclass = 0", fillcolor="#e58139"] ;
226 -> 227 ;
228 [label="BloodPressure <= 78.0\ngini = 0.49\nsamples = 7\nvalue = [4, 3]\nclass = 0", fillcolor="#f8e0ce"] ;
226 -> 228 ;
229 [label="gini = 0.0\nsamples = 3\nvalue = [3, 0]\nclass = 0", fillcolor="#e58139"] ;
228 -> 229 ;
230 [label="BMI <= 44.35\ngini = 0.375\nsamples = 4\nvalue = [1, 3]\nclass = 1", fillcolor="#7bbeee"] ;
228 -> 230 ;
231 [label="gini = 0.0\nsamples = 3\nvalue = [0, 3]\nclass = 1", fillcolor="#399de5"] ;
230 -> 231 ;
232 [label="gini = 0.0\nsamples = 1\nvalue = [1, 0]\nclass = 0", fillcolor="#e58139"] ;
230 -> 232 ;
233 [label="BMI <= 46.0\ngini = 0.42\nsamples = 10\nvalue = [3, 7]\nclass = 1", fillcolor="#8ec7f0"] ;
79 -> 233 ;
234 [label="gini = 0.0\nsamples = 4\nvalue = [0, 4]\nclass = 1", fillcolor="#399de5"] ;
233 -> 234 ;
235 [label="Glucose <= 107.0\ngini = 0.5\nsamples = 6\nvalue = [3, 3]\nclass = 0", fillcolor="#ffffff"] ;
233 -> 235 ;
236 [label="gini = 0.0\nsamples = 2\nvalue = [2, 0]\nclass = 0", fillcolor="#e58139"] ;
235 -> 236 ;
237 [label="BloodPressure <= 99.0\ngini = 0.375\nsamples = 4\nvalue = [1, 3]\nclass = 1", fillcolor="#7bbeee"] ;
235 -> 237 ;
238 [label="gini = 0.0\nsamples = 3\nvalue = [0, 3]\nclass = 1", fillcolor="#399de5"] ;
237 -> 238 ;
239 [label="gini = 0.0\nsamples = 1\nvalue = [1, 0]\nclass = 0", fillcolor="#e58139"] ;
237 -> 239 ;
240 [label="BMI <= 29.95\ngini = 0.474\nsamples = 283\nvalue = [109, 174]\nclass = 1", fillcolor="#b5daf5"] ;
0 -> 240 [labeldistance=2.5, labelangle=-45, headlabel="False"] ;
241 [label="Glucose <= 145.5\ngini = 0.432\nsamples = 76\nvalue = [52, 24]\nclass = 0", fillcolor="#f1bb94"] ;
240 -> 241 ;
242 [label="BMI <= 28.15\ngini = 0.25\nsamples = 41\nvalue = [35, 6]\nclass = 0", fillcolor="#e9975b"] ;
241 -> 242 ;
243 [label="BloodPressure <= 73.0\ngini = 0.17\nsamples = 32\nvalue = [29, 3]\nclass = 0", fillcolor="#e88e4d"] ;
242 -> 243 ;
244 [label="BloodPressure <= 71.0\ngini = 0.337\nsamples = 14\nvalue = [11, 3]\nclass = 0", fillcolor="#eca36f"] ;
243 -> 244 ;
245 [label="Glucose <= 129.5\ngini = 0.26\nsamples = 13\nvalue = [11, 2]\nclass = 0", fillcolor="#ea985d"] ;
244 -> 245 ;
246 [label="BloodPressure <= 62.0\ngini = 0.5\nsamples = 2\nvalue = [1, 1]\nclass = 0", fillcolor="#ffffff"] ;
245 -> 246 ;
247 [label="gini = 0.0\nsamples = 1\nvalue = [1, 0]\nclass = 0", fillcolor="#e58139"] ;
246 -> 247 ;
248 [label="gini = 0.0\nsamples = 1\nvalue = [0, 1]\nclass = 1", fillcolor="#399de5"] ;
246 -> 248 ;
249 [label="BloodPressure <= 56.0\ngini = 0.165\nsamples = 11\nvalue = [10, 1]\nclass = 0", fillcolor="#e88e4d"] ;
245 -> 249 ;
250 [label="BMI <= 26.15\ngini = 0.5\nsamples = 2\nvalue = [1, 1]\nclass = 0", fillcolor="#ffffff"] ;
249 -> 250 ;
251 [label="gini = 0.0\nsamples = 1\nvalue = [0, 1]\nclass = 1", fillcolor="#399de5"] ;
250 -> 251 ;
252 [label="gini = 0.0\nsamples = 1\nvalue = [1, 0]\nclass = 0", fillcolor="#e58139"] ;
250 -> 252 ;
253 [label="gini = 0.0\nsamples = 9\nvalue = [9, 0]\nclass = 0", fillcolor="#e58139"] ;
249 -> 253 ;
254 [label="gini = 0.0\nsamples = 1\nvalue = [0, 1]\nclass = 1", fillcolor="#399de5"] ;
244 -> 254 ;
255 [label="gini = 0.0\nsamples = 18\nvalue = [18, 0]\nclass = 0", fillcolor="#e58139"] ;
243 -> 255 ;
256 [label="BloodPressure <= 67.0\ngini = 0.444\nsamples = 9\nvalue = [6, 3]\nclass = 0", fillcolor="#f2c09c"] ;
242 -> 256 ;
257 [label="gini = 0.0\nsamples = 5\nvalue = [5, 0]\nclass = 0", fillcolor="#e58139"] ;
256 -> 257 ;
258 [label="BMI <= 29.4\ngini = 0.375\nsamples = 4\nvalue = [1, 3]\nclass = 1", fillcolor="#7bbeee"] ;
256 -> 258 ;
259 [label="gini = 0.0\nsamples = 3\nvalue = [0, 3]\nclass = 1", fillcolor="#399de5"] ;
258 -> 259 ;
260 [label="gini = 0.0\nsamples = 1\nvalue = [1, 0]\nclass = 0", fillcolor="#e58139"] ;
258 -> 260 ;
261 [label="BMI <= 23.1\ngini = 0.5\nsamples = 35\nvalue = [17, 18]\nclass = 1", fillcolor="#f4fafe"] ;
241 -> 261 ;
262 [label="gini = 0.0\nsamples = 3\nvalue = [3, 0]\nclass = 0", fillcolor="#e58139"] ;
261 -> 262 ;
263 [label="BMI <= 25.55\ngini = 0.492\nsamples = 32\nvalue = [14, 18]\nclass = 1", fillcolor="#d3e9f9"] ;
261 -> 263 ;
264 [label="gini = 0.0\nsamples = 7\nvalue = [0, 7]\nclass = 1", fillcolor="#399de5"] ;
263 -> 264 ;
265 [label="BloodPressure <= 25.0\ngini = 0.493\nsamples = 25\nvalue = [14.0, 11.0]\nclass = 0", fillcolor="#f9e4d5"] ;
263 -> 265 ;
266 [label="gini = 0.0\nsamples = 2\nvalue = [0, 2]\nclass = 1", fillcolor="#399de5"] ;
265 -> 266 ;
267 [label="BloodPressure <= 66.0\ngini = 0.476\nsamples = 23\nvalue = [14, 9]\nclass = 0", fillcolor="#f6d2b8"] ;
265 -> 267 ;
268 [label="gini = 0.0\nsamples = 4\nvalue = [4, 0]\nclass = 0", fillcolor="#e58139"] ;
267 -> 268 ;
269 [label="BloodPressure <= 74.5\ngini = 0.499\nsamples = 19\nvalue = [10, 9]\nclass = 0", fillcolor="#fcf2eb"] ;
267 -> 269 ;
270 [label="Glucose <= 167.5\ngini = 0.463\nsamples = 11\nvalue = [4, 7]\nclass = 1", fillcolor="#aad5f4"] ;
269 -> 270 ;
271 [label="Glucose <= 151.5\ngini = 0.5\nsamples = 8\nvalue = [4, 4]\nclass = 0", fillcolor="#ffffff"] ;
270 -> 271 ;
272 [label="gini = 0.0\nsamples = 2\nvalue = [0, 2]\nclass = 1", fillcolor="#399de5"] ;
271 -> 272 ;
273 [label="BMI <= 27.95\ngini = 0.444\nsamples = 6\nvalue = [4, 2]\nclass = 0", fillcolor="#f2c09c"] ;
271 -> 273 ;
274 [label="BMI <= 25.7\ngini = 0.5\nsamples = 4\nvalue = [2, 2]\nclass = 0", fillcolor="#ffffff"] ;
273 -> 274 ;
275 [label="gini = 0.0\nsamples = 1\nvalue = [1, 0]\nclass = 0", fillcolor="#e58139"] ;
274 -> 275 ;
276 [label="BloodPressure <= 73.0\ngini = 0.444\nsamples = 3\nvalue = [1, 2]\nclass = 1", fillcolor="#9ccef2"] ;
274 -> 276 ;
277 [label="gini = 0.0\nsamples = 1\nvalue = [0, 1]\nclass = 1", fillcolor="#399de5"] ;
276 -> 277 ;
278 [label="Glucose <= 160.5\ngini = 0.5\nsamples = 2\nvalue = [1, 1]\nclass = 0", fillcolor="#ffffff"] ;
276 -> 278 ;
279 [label="gini = 0.0\nsamples = 1\nvalue = [0, 1]\nclass = 1", fillcolor="#399de5"] ;
278 -> 279 ;
280 [label="gini = 0.0\nsamples = 1\nvalue = [1, 0]\nclass = 0", fillcolor="#e58139"] ;
278 -> 280 ;
281 [label="gini = 0.0\nsamples = 2\nvalue = [2, 0]\nclass = 0", fillcolor="#e58139"] ;
273 -> 281 ;
282 [label="gini = 0.0\nsamples = 3\nvalue = [0, 3]\nclass = 1", fillcolor="#399de5"] ;
270 -> 282 ;
283 [label="Glucose <= 157.0\ngini = 0.375\nsamples = 8\nvalue = [6, 2]\nclass = 0", fillcolor="#eeab7b"] ;
269 -> 283 ;
284 [label="BMI <= 29.6\ngini = 0.48\nsamples = 5\nvalue = [3, 2]\nclass = 0", fillcolor="#f6d5bd"] ;
283 -> 284 ;
285 [label="Glucose <= 146.5\ngini = 0.444\nsamples = 3\nvalue = [1, 2]\nclass = 1", fillcolor="#9ccef2"] ;
284 -> 285 ;
286 [label="gini = 0.0\nsamples = 1\nvalue = [1, 0]\nclass = 0", fillcolor="#e58139"] ;
285 -> 286 ;
287 [label="gini = 0.0\nsamples = 2\nvalue = [0, 2]\nclass = 1", fillcolor="#399de5"] ;
285 -> 287 ;
288 [label="gini = 0.0\nsamples = 2\nvalue = [2, 0]\nclass = 0", fillcolor="#e58139"] ;
284 -> 288 ;
289 [label="gini = 0.0\nsamples = 3\nvalue = [3, 0]\nclass = 0", fillcolor="#e58139"] ;
283 -> 289 ;
290 [label="Glucose <= 157.5\ngini = 0.399\nsamples = 207\nvalue = [57, 150]\nclass = 1", fillcolor="#84c2ef"] ;
240 -> 290 ;
291 [label="BloodPressure <= 61.0\ngini = 0.476\nsamples = 115\nvalue = [45, 70]\nclass = 1", fillcolor="#b8dcf6"] ;
290 -> 291 ;
292 [label="Glucose <= 130.0\ngini = 0.124\nsamples = 15\nvalue = [1, 14]\nclass = 1", fillcolor="#47a4e7"] ;
291 -> 292 ;
293 [label="BMI <= 39.2\ngini = 0.444\nsamples = 3\nvalue = [1, 2]\nclass = 1", fillcolor="#9ccef2"] ;
292 -> 293 ;
294 [label="gini = 0.0\nsamples = 1\nvalue = [1, 0]\nclass = 0", fillcolor="#e58139"] ;
293 -> 294 ;
295 [label="gini = 0.0\nsamples = 2\nvalue = [0, 2]\nclass = 1", fillcolor="#399de5"] ;
293 -> 295 ;
296 [label="gini = 0.0\nsamples = 12\nvalue = [0, 12]\nclass = 1", fillcolor="#399de5"] ;
292 -> 296 ;
297 [label="BloodPressure <= 91.0\ngini = 0.493\nsamples = 100\nvalue = [44.0, 56.0]\nclass = 1", fillcolor="#d5eaf9"] ;
291 -> 297 ;
298 [label="BMI <= 41.65\ngini = 0.499\nsamples = 90\nvalue = [43, 47]\nclass = 1", fillcolor="#eef7fd"] ;
297 -> 298 ;
299 [label="BMI <= 39.7\ngini = 0.499\nsamples = 75\nvalue = [39, 36]\nclass = 0", fillcolor="#fdf5f0"] ;
298 -> 299 ;
300 [label="BMI <= 33.95\ngini = 0.497\nsamples = 65\nvalue = [30, 35]\nclass = 1", fillcolor="#e3f1fb"] ;
299 -> 300 ;
301 [label="Glucose <= 128.5\ngini = 0.487\nsamples = 31\nvalue = [18, 13]\nclass = 0", fillcolor="#f8dcc8"] ;
300 -> 301 ;
302 [label="gini = 0.0\nsamples = 2\nvalue = [0, 2]\nclass = 1", fillcolor="#399de5"] ;
301 -> 302 ;
303 [label="BloodPressure <= 69.0\ngini = 0.471\nsamples = 29\nvalue = [18, 11]\nclass = 0", fillcolor="#f5ceb2"] ;
301 -> 303 ;
304 [label="gini = 0.0\nsamples = 3\nvalue = [3, 0]\nclass = 0", fillcolor="#e58139"] ;
303 -> 304 ;
305 [label="Glucose <= 143.5\ngini = 0.488\nsamples = 26\nvalue = [15.0, 11.0]\nclass = 0", fillcolor="#f8ddca"] ;
303 -> 305 ;
306 [label="BMI <= 31.8\ngini = 0.43\nsamples = 16\nvalue = [11, 5]\nclass = 0", fillcolor="#f1ba93"] ;
305 -> 306 ;
307 [label="BloodPressure <= 87.0\ngini = 0.49\nsamples = 7\nvalue = [3, 4]\nclass = 1", fillcolor="#cee6f8"] ;
306 -> 307 ;
308 [label="BloodPressure <= 82.0\ngini = 0.48\nsamples = 5\nvalue = [3, 2]\nclass = 0", fillcolor="#f6d5bd"] ;
307 -> 308 ;
309 [label="Glucose <= 132.5\ngini = 0.444\nsamples = 3\nvalue = [1, 2]\nclass = 1", fillcolor="#9ccef2"] ;
308 -> 309 ;
310 [label="gini = 0.0\nsamples = 1\nvalue = [1, 0]\nclass = 0", fillcolor="#e58139"] ;
309 -> 310 ;
311 [label="gini = 0.0\nsamples = 2\nvalue = [0, 2]\nclass = 1", fillcolor="#399de5"] ;
309 -> 311 ;
312 [label="gini = 0.0\nsamples = 2\nvalue = [2, 0]\nclass = 0", fillcolor="#e58139"] ;
308 -> 312 ;
313 [label="gini = 0.0\nsamples = 2\nvalue = [0, 2]\nclass = 1", fillcolor="#399de5"] ;
307 -> 313 ;
314 [label="BloodPressure <= 73.0\ngini = 0.198\nsamples = 9\nvalue = [8, 1]\nclass = 0", fillcolor="#e89152"] ;
306 -> 314 ;
315 [label="BMI <= 33.05\ngini = 0.5\nsamples = 2\nvalue = [1, 1]\nclass = 0", fillcolor="#ffffff"] ;
314 -> 315 ;
316 [label="gini = 0.0\nsamples = 1\nvalue = [0, 1]\nclass = 1", fillcolor="#399de5"] ;
315 -> 316 ;
317 [label="gini = 0.0\nsamples = 1\nvalue = [1, 0]\nclass = 0", fillcolor="#e58139"] ;
315 -> 317 ;
318 [label="gini = 0.0\nsamples = 7\nvalue = [7, 0]\nclass = 0", fillcolor="#e58139"] ;
314 -> 318 ;
319 [label="BMI <= 33.65\ngini = 0.48\nsamples = 10\nvalue = [4, 6]\nclass = 1", fillcolor="#bddef6"] ;
305 -> 319 ;
320 [label="BMI <= 31.65\ngini = 0.375\nsamples = 8\nvalue = [2, 6]\nclass = 1", fillcolor="#7bbeee"] ;
319 -> 320 ;
321 [label="BloodPressure <= 83.0\ngini = 0.444\nsamples = 3\nvalue = [2, 1]\nclass = 0", fillcolor="#f2c09c"] ;
320 -> 321 ;
322 [label="gini = 0.0\nsamples = 2\nvalue = [2, 0]\nclass = 0", fillcolor="#e58139"] ;
321 -> 322 ;
323 [label="gini = 0.0\nsamples = 1\nvalue = [0, 1]\nclass = 1", fillcolor="#399de5"] ;
321 -> 323 ;
324 [label="gini = 0.0\nsamples = 5\nvalue = [0, 5]\nclass = 1", fillcolor="#399de5"] ;
320 -> 324 ;
325 [label="gini = 0.0\nsamples = 2\nvalue = [2, 0]\nclass = 0", fillcolor="#e58139"] ;
319 -> 325 ;
326 [label="Glucose <= 129.5\ngini = 0.457\nsamples = 34\nvalue = [12, 22]\nclass = 1", fillcolor="#a5d2f3"] ;
300 -> 326 ;
327 [label="BMI <= 36.2\ngini = 0.444\nsamples = 6\nvalue = [4, 2]\nclass = 0", fillcolor="#f2c09c"] ;
326 -> 327 ;
328 [label="gini = 0.0\nsamples = 4\nvalue = [4, 0]\nclass = 0", fillcolor="#e58139"] ;
327 -> 328 ;
329 [label="gini = 0.0\nsamples = 2\nvalue = [0, 2]\nclass = 1", fillcolor="#399de5"] ;
327 -> 329 ;
330 [label="BMI <= 34.55\ngini = 0.408\nsamples = 28\nvalue = [8, 20]\nclass = 1", fillcolor="#88c4ef"] ;
326 -> 330 ;
331 [label="gini = 0.0\nsamples = 6\nvalue = [0, 6]\nclass = 1", fillcolor="#399de5"] ;
330 -> 331 ;
332 [label="Glucose <= 150.5\ngini = 0.463\nsamples = 22\nvalue = [8, 14]\nclass = 1", fillcolor="#aad5f4"] ;
330 -> 332 ;
333 [label="BMI <= 34.95\ngini = 0.388\nsamples = 19\nvalue = [5, 14]\nclass = 1", fillcolor="#80c0ee"] ;
332 -> 333 ;
334 [label="Glucose <= 145.0\ngini = 0.444\nsamples = 3\nvalue = [2, 1]\nclass = 0", fillcolor="#f2c09c"] ;
333 -> 334 ;
335 [label="gini = 0.0\nsamples = 1\nvalue = [0, 1]\nclass = 1", fillcolor="#399de5"] ;
334 -> 335 ;
336 [label="gini = 0.0\nsamples = 2\nvalue = [2, 0]\nclass = 0", fillcolor="#e58139"] ;
334 -> 336 ;
337 [label="BloodPressure <= 84.5\ngini = 0.305\nsamples = 16\nvalue = [3, 13]\nclass = 1", fillcolor="#67b4eb"] ;
333 -> 337 ;
338 [label="BloodPressure <= 77.0\ngini = 0.231\nsamples = 15\nvalue = [2, 13]\nclass = 1", fillcolor="#57ace9"] ;
337 -> 338 ;
339 [label="BMI <= 37.25\ngini = 0.408\nsamples = 7\nvalue = [2, 5]\nclass = 1", fillcolor="#88c4ef"] ;
338 -> 339 ;
340 [label="gini = 0.0\nsamples = 3\nvalue = [0, 3]\nclass = 1", fillcolor="#399de5"] ;
339 -> 340 ;
341 [label="BMI <= 37.65\ngini = 0.5\nsamples = 4\nvalue = [2, 2]\nclass = 0", fillcolor="#ffffff"] ;
339 -> 341 ;
342 [label="gini = 0.0\nsamples = 1\nvalue = [1, 0]\nclass = 0", fillcolor="#e58139"] ;
341 -> 342 ;
343 [label="BloodPressure <= 73.0\ngini = 0.444\nsamples = 3\nvalue = [1, 2]\nclass = 1", fillcolor="#9ccef2"] ;
341 -> 343 ;
344 [label="gini = 0.0\nsamples = 1\nvalue = [0, 1]\nclass = 1", fillcolor="#399de5"] ;
343 -> 344 ;
345 [label="BMI <= 38.8\ngini = 0.5\nsamples = 2\nvalue = [1, 1]\nclass = 0", fillcolor="#ffffff"] ;
343 -> 345 ;
346 [label="gini = 0.0\nsamples = 1\nvalue = [1, 0]\nclass = 0", fillcolor="#e58139"] ;
345 -> 346 ;
347 [label="gini = 0.0\nsamples = 1\nvalue = [0, 1]\nclass = 1", fillcolor="#399de5"] ;
345 -> 347 ;
348 [label="gini = 0.0\nsamples = 8\nvalue = [0, 8]\nclass = 1", fillcolor="#399de5"] ;
338 -> 348 ;
349 [label="gini = 0.0\nsamples = 1\nvalue = [1, 0]\nclass = 0", fillcolor="#e58139"] ;
337 -> 349 ;
350 [label="gini = 0.0\nsamples = 3\nvalue = [3, 0]\nclass = 0", fillcolor="#e58139"] ;
332 -> 350 ;
351 [label="BloodPressure <= 63.0\ngini = 0.18\nsamples = 10\nvalue = [9, 1]\nclass = 0", fillcolor="#e88f4f"] ;
299 -> 351 ;
352 [label="BMI <= 40.95\ngini = 0.5\nsamples = 2\nvalue = [1, 1]\nclass = 0", fillcolor="#ffffff"] ;
351 -> 352 ;
353 [label="gini = 0.0\nsamples = 1\nvalue = [1, 0]\nclass = 0", fillcolor="#e58139"] ;
352 -> 353 ;
354 [label="gini = 0.0\nsamples = 1\nvalue = [0, 1]\nclass = 1", fillcolor="#399de5"] ;
352 -> 354 ;
355 [label="gini = 0.0\nsamples = 8\nvalue = [8, 0]\nclass = 0", fillcolor="#e58139"] ;
351 -> 355 ;
356 [label="Glucose <= 142.5\ngini = 0.391\nsamples = 15\nvalue = [4, 11]\nclass = 1", fillcolor="#81c1ee"] ;
298 -> 356 ;
357 [label="gini = 0.0\nsamples = 5\nvalue = [0, 5]\nclass = 1", fillcolor="#399de5"] ;
356 -> 357 ;
358 [label="Glucose <= 143.5\ngini = 0.48\nsamples = 10\nvalue = [4, 6]\nclass = 1", fillcolor="#bddef6"] ;
356 -> 358 ;
359 [label="gini = 0.0\nsamples = 2\nvalue = [2, 0]\nclass = 0", fillcolor="#e58139"] ;
358 -> 359 ;
360 [label="BMI <= 42.45\ngini = 0.375\nsamples = 8\nvalue = [2, 6]\nclass = 1", fillcolor="#7bbeee"] ;
358 -> 360 ;
361 [label="gini = 0.0\nsamples = 2\nvalue = [0, 2]\nclass = 1", fillcolor="#399de5"] ;
360 -> 361 ;
362 [label="BMI <= 42.85\ngini = 0.444\nsamples = 6\nvalue = [2, 4]\nclass = 1", fillcolor="#9ccef2"] ;
360 -> 362 ;
363 [label="gini = 0.0\nsamples = 1\nvalue = [1, 0]\nclass = 0", fillcolor="#e58139"] ;
362 -> 363 ;
364 [label="Glucose <= 153.0\ngini = 0.32\nsamples = 5\nvalue = [1, 4]\nclass = 1", fillcolor="#6ab6ec"] ;
362 -> 364 ;
365 [label="gini = 0.0\nsamples = 3\nvalue = [0, 3]\nclass = 1", fillcolor="#399de5"] ;
364 -> 365 ;
366 [label="Glucose <= 155.0\ngini = 0.5\nsamples = 2\nvalue = [1, 1]\nclass = 0", fillcolor="#ffffff"] ;
364 -> 366 ;
367 [label="gini = 0.0\nsamples = 1\nvalue = [1, 0]\nclass = 0", fillcolor="#e58139"] ;
366 -> 367 ;
368 [label="gini = 0.0\nsamples = 1\nvalue = [0, 1]\nclass = 1", fillcolor="#399de5"] ;
366 -> 368 ;
369 [label="BMI <= 38.6\ngini = 0.18\nsamples = 10\nvalue = [1, 9]\nclass = 1", fillcolor="#4fa8e8"] ;
297 -> 369 ;
370 [label="gini = 0.0\nsamples = 6\nvalue = [0, 6]\nclass = 1", fillcolor="#399de5"] ;
369 -> 370 ;
371 [label="BMI <= 44.7\ngini = 0.375\nsamples = 4\nvalue = [1, 3]\nclass = 1", fillcolor="#7bbeee"] ;
369 -> 371 ;
372 [label="gini = 0.0\nsamples = 1\nvalue = [1, 0]\nclass = 0", fillcolor="#e58139"] ;
371 -> 372 ;
373 [label="gini = 0.0\nsamples = 3\nvalue = [0, 3]\nclass = 1", fillcolor="#399de5"] ;
371 -> 373 ;
374 [label="BMI <= 46.1\ngini = 0.227\nsamples = 92\nvalue = [12, 80]\nclass = 1", fillcolor="#57ace9"] ;
290 -> 374 ;
375 [label="BMI <= 36.75\ngini = 0.189\nsamples = 85\nvalue = [9, 76]\nclass = 1", fillcolor="#50a9e8"] ;
374 -> 375 ;
376 [label="BMI <= 36.6\ngini = 0.256\nsamples = 53\nvalue = [8, 45]\nclass = 1", fillcolor="#5caeea"] ;
375 -> 376 ;
377 [label="BloodPressure <= 93.5\ngini = 0.233\nsamples = 52\nvalue = [7, 45]\nclass = 1", fillcolor="#58ace9"] ;
376 -> 377 ;
378 [label="BloodPressure <= 69.0\ngini = 0.211\nsamples = 50\nvalue = [6, 44]\nclass = 1", fillcolor="#54aae9"] ;
377 -> 378 ;
379 [label="Glucose <= 158.5\ngini = 0.346\nsamples = 18\nvalue = [4, 14]\nclass = 1", fillcolor="#72b9ec"] ;
378 -> 379 ;
380 [label="gini = 0.0\nsamples = 1\nvalue = [1, 0]\nclass = 0", fillcolor="#e58139"] ;
379 -> 380 ;
381 [label="BloodPressure <= 67.0\ngini = 0.291\nsamples = 17\nvalue = [3, 14]\nclass = 1", fillcolor="#63b2eb"] ;
379 -> 381 ;
382 [label="BMI <= 33.95\ngini = 0.142\nsamples = 13\nvalue = [1, 12]\nclass = 1", fillcolor="#49a5e7"] ;
381 -> 382 ;
383 [label="gini = 0.0\nsamples = 9\nvalue = [0, 9]\nclass = 1", fillcolor="#399de5"] ;
382 -> 383 ;
384 [label="BMI <= 34.05\ngini = 0.375\nsamples = 4\nvalue = [1, 3]\nclass = 1", fillcolor="#7bbeee"] ;
382 -> 384 ;
385 [label="gini = 0.0\nsamples = 1\nvalue = [1, 0]\nclass = 0", fillcolor="#e58139"] ;
384 -> 385 ;
386 [label="gini = 0.0\nsamples = 3\nvalue = [0, 3]\nclass = 1", fillcolor="#399de5"] ;
384 -> 386 ;
387 [label="BMI <= 30.5\ngini = 0.5\nsamples = 4\nvalue = [2, 2]\nclass = 0", fillcolor="#ffffff"] ;
381 -> 387 ;
388 [label="gini = 0.0\nsamples = 1\nvalue = [0, 1]\nclass = 1", fillcolor="#399de5"] ;
387 -> 388 ;
389 [label="Glucose <= 192.5\ngini = 0.444\nsamples = 3\nvalue = [2, 1]\nclass = 0", fillcolor="#f2c09c"] ;
387 -> 389 ;
390 [label="gini = 0.0\nsamples = 2\nvalue = [2, 0]\nclass = 0", fillcolor="#e58139"] ;
389 -> 390 ;
391 [label="gini = 0.0\nsamples = 1\nvalue = [0, 1]\nclass = 1", fillcolor="#399de5"] ;
389 -> 391 ;
392 [label="BloodPressure <= 83.0\ngini = 0.117\nsamples = 32\nvalue = [2, 30]\nclass = 1", fillcolor="#46a4e7"] ;
378 -> 392 ;
393 [label="BloodPressure <= 80.0\ngini = 0.198\nsamples = 18\nvalue = [2, 16]\nclass = 1", fillcolor="#52a9e8"] ;
392 -> 393 ;
394 [label="BMI <= 35.0\ngini = 0.117\nsamples = 16\nvalue = [1, 15]\nclass = 1", fillcolor="#46a4e7"] ;
393 -> 394 ;
395 [label="gini = 0.0\nsamples = 12\nvalue = [0, 12]\nclass = 1", fillcolor="#399de5"] ;
394 -> 395 ;
396 [label="BMI <= 35.3\ngini = 0.375\nsamples = 4\nvalue = [1, 3]\nclass = 1", fillcolor="#7bbeee"] ;
394 -> 396 ;
397 [label="gini = 0.0\nsamples = 1\nvalue = [1, 0]\nclass = 0", fillcolor="#e58139"] ;
396 -> 397 ;
398 [label="gini = 0.0\nsamples = 3\nvalue = [0, 3]\nclass = 1", fillcolor="#399de5"] ;
396 -> 398 ;
399 [label="Glucose <= 176.0\ngini = 0.5\nsamples = 2\nvalue = [1, 1]\nclass = 0", fillcolor="#ffffff"] ;
393 -> 399 ;
400 [label="gini = 0.0\nsamples = 1\nvalue = [1, 0]\nclass = 0", fillcolor="#e58139"] ;
399 -> 400 ;
401 [label="gini = 0.0\nsamples = 1\nvalue = [0, 1]\nclass = 1", fillcolor="#399de5"] ;
399 -> 401 ;
402 [label="gini = 0.0\nsamples = 14\nvalue = [0, 14]\nclass = 1", fillcolor="#399de5"] ;
392 -> 402 ;
403 [label="BMI <= 34.25\ngini = 0.5\nsamples = 2\nvalue = [1, 1]\nclass = 0", fillcolor="#ffffff"] ;
377 -> 403 ;
404 [label="gini = 0.0\nsamples = 1\nvalue = [1, 0]\nclass = 0", fillcolor="#e58139"] ;
403 -> 404 ;
405 [label="gini = 0.0\nsamples = 1\nvalue = [0, 1]\nclass = 1", fillcolor="#399de5"] ;
403 -> 405 ;
406 [label="gini = 0.0\nsamples = 1\nvalue = [1, 0]\nclass = 0", fillcolor="#e58139"] ;
376 -> 406 ;
407 [label="BloodPressure <= 92.0\ngini = 0.061\nsamples = 32\nvalue = [1, 31]\nclass = 1", fillcolor="#3fa0e6"] ;
375 -> 407 ;
408 [label="gini = 0.0\nsamples = 27\nvalue = [0, 27]\nclass = 1", fillcolor="#399de5"] ;
407 -> 408 ;
409 [label="BloodPressure <= 99.0\ngini = 0.32\nsamples = 5\nvalue = [1, 4]\nclass = 1", fillcolor="#6ab6ec"] ;
407 -> 409 ;
410 [label="gini = 0.0\nsamples = 1\nvalue = [1, 0]\nclass = 0", fillcolor="#e58139"] ;
409 -> 410 ;
411 [label="gini = 0.0\nsamples = 4\nvalue = [0, 4]\nclass = 1", fillcolor="#399de5"] ;
409 -> 411 ;
412 [label="BMI <= 52.75\ngini = 0.49\nsamples = 7\nvalue = [3, 4]\nclass = 1", fillcolor="#cee6f8"] ;
374 -> 412 ;
413 [label="Glucose <= 163.5\ngini = 0.48\nsamples = 5\nvalue = [3, 2]\nclass = 0", fillcolor="#f6d5bd"] ;
412 -> 413 ;
414 [label="gini = 0.0\nsamples = 1\nvalue = [0, 1]\nclass = 1", fillcolor="#399de5"] ;
413 -> 414 ;
415 [label="Glucose <= 180.5\ngini = 0.375\nsamples = 4\nvalue = [3, 1]\nclass = 0", fillcolor="#eeab7b"] ;
413 -> 415 ;
416 [label="gini = 0.0\nsamples = 3\nvalue = [3, 0]\nclass = 0", fillcolor="#e58139"] ;
415 -> 416 ;
417 [label="gini = 0.0\nsamples = 1\nvalue = [0, 1]\nclass = 1", fillcolor="#399de5"] ;
415 -> 417 ;
418 [label="gini = 0.0\nsamples = 2\nvalue = [0, 2]\nclass = 1", fillcolor="#399de5"] ;
412 -> 418 ;
}